<?xml version="1.0"?>
<opencv_storage>
<stage13>
  <maxWeakCount>92</maxWeakCount>
  <stageThreshold>-3.0746378898620605e+000</stageThreshold>
  <weakClassifiers>
    <_>
      <internalNodes>
        0 -1 385 -1 -65537 -1 -65537 -1 -1 -1 -1</internalNodes>
      <leafValues>
        -8.1336867809295654e-001 -2.2511386871337891e-001</leafValues></_>
    <_>
      <internalNodes>
        0 -1 1815 -1 -4097 -21761 -21761 -65 -1 -19781 -21761</internalNodes>
      <leafValues>
        -5.3765028715133667e-001 1.4568787813186646e-001</leafValues></_>
    <_>
      <internalNodes>
        0 -1 3534 -209 -1 -65 -1 -235 2139094911 -207 -1</internalNodes>
      <leafValues>
        -3.7857702374458313e-001 2.3436468839645386e-001</leafValues></_>
    <_>
      <internalNodes>
        0 -1 1324 1963325184 -134873089 -243 -1 1968504829 -1208483841
        -33554961 -2097153</internalNodes>
      <leafValues>
        -3.9827018976211548e-001 2.3157061636447906e-001</leafValues></_>
    <_>
      <internalNodes>
        0 -1 3087 -665780225 1566433279 -67108865 2147483647 -800000771
        -1 -260971265 -8241</internalNodes>
      <leafValues>
        -2.8233814239501953e-001 3.2693490386009216e-001</leafValues></_>
    <_>
      <internalNodes>
        0 -1 1918 -285212845 -268435457 -992682415 -989986849 -267281
        -273944693 -1 -37</internalNodes>
      <leafValues>
        -2.1329540014266968e-001 3.2457318902015686e-001</leafValues></_>
    <_>
      <internalNodes>
        0 -1 199 -352399617 1089466095 -1027454238 -520163585 -142641377
        1090518847 -144836649 -137887745</internalNodes>
      <leafValues>
        -2.3840345442295074e-001 2.8547334671020508e-001</leafValues></_>
    <_>
      <internalNodes>
        0 -1 3938 -536870923 -1915814404 217844784 -858981148 1307956720
        -1665271835 1291113616 -573636656</internalNodes>
      <leafValues>
        -2.9193943738937378e-001 2.1669431030750275e-001</leafValues></_>
    <_>
      <internalNodes>
        0 -1 3381 -1272929136 270540080 -1078132740 -37954308
        -1086800456 -1465903819 -1078935621 -1079304769</internalNodes>
      <leafValues>
        -2.3017761111259460e-001 2.5879564881324768e-001</leafValues></_>
    <_>
      <internalNodes>
        0 -1 3026 -5245659 -1052753 -1 -1048657 -2101331 -1 -34603587
        -273713919</internalNodes>
      <leafValues>
        -2.5846198201179504e-001 2.2834026813507080e-001</leafValues></_>
    <_>
      <internalNodes>
        0 -1 704 -1 -69009425 -17895698 -219218198 -8388737 -8912897
        1901547588 -134220033</internalNodes>
      <leafValues>
        -2.7123978734016418e-001 1.9811052083969116e-001</leafValues></_>
    <_>
      <internalNodes>
        0 -1 1741 -228396294 -202226957 -14508290 2133983846 1879097590
        -223328525 1879070454 2066956871</internalNodes>
      <leafValues>
        -2.7328646183013916e-001 1.8755005300045013e-001</leafValues></_>
    <_>
      <internalNodes>
        0 -1 2958 -68163926 -1058029617 -391469566 -990908945 -210508025
        1073904453 -147327225 -9175089</internalNodes>
      <leafValues>
        -2.5968009233474731e-001 1.9445241987705231e-001</leafValues></_>
    <_>
      <internalNodes>
        0 -1 3700 -117910320 -589558532 -1074201091 -33764099 -21446984
        -16843057 -1094141000 -1433926471</internalNodes>
      <leafValues>
        -2.3990757763385773e-001 2.0783598721027374e-001</leafValues></_>
    <_>
      <internalNodes>
        0 -1 3647 -1049677 33815299 -706743888 -1048314640 -542113877
        -1976829013 1374679232 -542113797</internalNodes>
      <leafValues>
        -2.1489284932613373e-001 2.3634925484657288e-001</leafValues></_>
    <_>
      <internalNodes>
        0 -1 428 841908223 1001270063 939417463 539898418 -570458369
        -285216769 -34817 1962899455</internalNodes>
      <leafValues>
        -3.4043061733245850e-001 1.4577147364616394e-001</leafValues></_>
    <_>
      <internalNodes>
        0 -1 2823 451941456 -34066690 -163841 -1107353601 -1078412360
        -1073905665 -1079459845 -1346761573</internalNodes>
      <leafValues>
        -2.2730427980422974e-001 2.1754781901836395e-001</leafValues></_>
    <_>
      <internalNodes>
        0 -1 374 -16777473 -4369 -218174722 -218109329 -143657089
        -8433809 -185340161 -134224129</internalNodes>
      <leafValues>
        -1.8203915655612946e-001 2.5007337331771851e-001</leafValues></_>
    <_>
      <internalNodes>
        0 -1 2675 -287314129 1105196031 -268439553 16772847 -76022266
        -83893018 -8951033 -352326074</internalNodes>
      <leafValues>
        -2.3328495025634766e-001 1.9610433280467987e-001</leafValues></_>
    <_>
      <internalNodes>
        0 -1 2815 -252643600 -518916 -65541 -537053441 -69666888
        -67584040 -4341768 -1141178117</internalNodes>
      <leafValues>
        -1.6467146575450897e-001 2.8847086429595947e-001</leafValues></_>
    <_>
      <internalNodes>
        0 -1 1170 -1359007821 -285298689 -270536705 -1347588739
        -1074004107 -1 -129 -1086328961</internalNodes>
      <leafValues>
        -1.7893595993518829e-001 2.6126104593276978e-001</leafValues></_>
    <_>
      <internalNodes>
        0 -1 1879 -724564976 -573307888 -34766855 -572698215 -389780044
        -153691 -30621767 453014553</internalNodes>
      <leafValues>
        -2.7732169628143311e-001 1.6059046983718872e-001</leafValues></_>
    <_>
      <internalNodes>
        0 -1 3492 -1057881906 1358909183 1660563419 1617620991
        -260914108 -730708715 -231669782 -234684642</internalNodes>
      <leafValues>
        -2.6796352863311768e-001 1.5666066110134125e-001</leafValues></_>
    <_>
      <internalNodes>
        0 -1 3400 -541067343 67305216 -407899727 -1917845599 -1409286229
        -1960575069 -939527773 -1946157125</internalNodes>
      <leafValues>
        -1.7929653823375702e-001 2.3277001082897186e-001</leafValues></_>
    <_>
      <internalNodes>
        0 -1 3589 1492897792 217904348 -1644175875 -1342185729
        -1200441192 -1196380627 -1157775480 719322079</internalNodes>
      <leafValues>
        -2.3567529022693634e-001 1.7580942809581757e-001</leafValues></_>
    <_>
      <internalNodes>
        0 -1 1 -1347704149 -1565873494 1069512401 -41222976 -268437505
        183496695 2011166535 -705693953</internalNodes>
      <leafValues>
        -1.8305459618568420e-001 2.3180475831031799e-001</leafValues></_>
    <_>
      <internalNodes>
        0 -1 1890 1004382895 389223731 -202003951 1362209296 1182715567
        1044119357 -604977014 1400097536</internalNodes>
      <leafValues>
        -2.8526401519775391e-001 1.4443069696426392e-001</leafValues></_>
    <_>
      <internalNodes>
        0 -1 3912 -134230257 -257 -1160511781 -757071905 -202648000
        -159383753 -67436782 -209978401</internalNodes>
      <leafValues>
        -1.6696679592132568e-001 2.3927628993988037e-001</leafValues></_>
    <_>
      <internalNodes>
        0 -1 2775 -386470194 -923223042 -268521812 -570677012
        -1275808835 -1427504650 -2769173 -538238789</internalNodes>
      <leafValues>
        -1.6362428665161133e-001 2.4052496254444122e-001</leafValues></_>
    <_>
      <internalNodes>
        0 -1 2841 -290582767 -318865409 787955711 784317437 -49388 -2049
        -543347945 -1359311109</internalNodes>
      <leafValues>
        -2.3860324919223785e-001 1.6219526529312134e-001</leafValues></_>
    <_>
      <internalNodes>
        0 -1 1750 -98385182 -87938322 -537235714 -67376402 1141130308
        -899527857 2137279950 2066958151</internalNodes>
      <leafValues>
        -2.5258457660675049e-001 1.5437817573547363e-001</leafValues></_>
    <_>
      <internalNodes>
        0 -1 167 -521994428 -520422285 -1899954353 -858785861 -235405756
        -251789825 -65 -257</internalNodes>
      <leafValues>
        -3.5861632227897644e-001 1.0416311770677567e-001</leafValues></_>
    <_>
      <internalNodes>
        0 -1 3385 -134220837 81769471 1366814992 291371891 -39864950
        -2135957105 -624961400 -1728053265</internalNodes>
      <leafValues>
        -1.7772284150123596e-001 2.1547199785709381e-001</leafValues></_>
    <_>
      <internalNodes>
        0 -1 3249 402659120 -479240 -136691747 -246340 -1138212892
        -1090907207 253235645 -1880337024</internalNodes>
      <leafValues>
        -2.8621476888656616e-001 1.2838594615459442e-001</leafValues></_>
    <_>
      <internalNodes>
        0 -1 2535 -588381024 -84269122 775040828 2134387242 4195764
        677520179 1465320891 1325605947</internalNodes>
      <leafValues>
        -2.3713137209415436e-001 1.5190282464027405e-001</leafValues></_>
    <_>
      <internalNodes>
        0 -1 1689 235284000 -219742512 -553666564 -16843012 705095428
        -286892043 220030420 -540031808</internalNodes>
      <leafValues>
        -2.9256820678710938e-001 1.2283088266849518e-001</leafValues></_>
    <_>
      <internalNodes>
        0 -1 3018 1103088 1859923952 1073643485 805247231 -1082278480
        -4727297 1065302975 805244346</internalNodes>
      <leafValues>
        -2.3185417056083679e-001 1.5255655348300934e-001</leafValues></_>
    <_>
      <internalNodes>
        0 -1 2904 -838873593 718923495 -1795 -1997541393 1918333235
        -34743327 2004317219 -355535102</internalNodes>
      <leafValues>
        -2.2567699849605560e-001 1.5380094945430756e-001</leafValues></_>
    <_>
      <internalNodes>
        0 -1 1229 -252510992 -590051308 -277291041 -1108509057
        -1082671183 -1079307343 -4325377 722431871</internalNodes>
      <leafValues>
        -1.4212502539157867e-001 2.5915846228599548e-001</leafValues></_>
    <_>
      <internalNodes>
        0 -1 1414 -1052689 -423465014 -285219076 1357313770 2134891599
        -30247041 1467445826 -9964066</internalNodes>
      <leafValues>
        -1.8013267219066620e-001 1.9116719067096710e-001</leafValues></_>
    <_>
      <internalNodes>
        0 -1 1562 -286329360 -890319652 804193045 -269549499 -1566376014
        -2441246 863187728 -1076940292</internalNodes>
      <leafValues>
        -2.7597340941429138e-001 1.2624995410442352e-001</leafValues></_>
    <_>
      <internalNodes>
        0 -1 3762 -536879137 -847286401 -1409319110 4234350 -2688
        -570426279 -134219840 -785711142</internalNodes>
      <leafValues>
        -1.9475817680358887e-001 1.7131994664669037e-001</leafValues></_>
    <_>
      <internalNodes>
        0 -1 3186 -2145321168 469809204 804716308 1606266495 -1087064399
        -1365185419 791785400 -1959019365</internalNodes>
      <leafValues>
        -1.7108246684074402e-001 2.0354598760604858e-001</leafValues></_>
    <_>
      <internalNodes>
        0 -1 894 -299700493 -72691990 -1080857993 -1400608 925938675
        -805661449 1444095999 -323247</internalNodes>
      <leafValues>
        -1.5130388736724854e-001 2.3063164949417114e-001</leafValues></_>
    <_>
      <internalNodes>
        0 -1 3015 1491138032 -17154310 -1179697185 -1074844161
        -1145260559 -1610646017 -1073774593 -1077990593</internalNodes>
      <leafValues>
        -1.5156933665275574e-001 2.1539781987667084e-001</leafValues></_>
    <_>
      <internalNodes>
        0 -1 2719 -84021718 2006617002 -55054814 -34736498 1348949119
        1430200870 1682011311 -733546778</internalNodes>
      <leafValues>
        -2.9076427221298218e-001 1.1576467007398605e-001</leafValues></_>
    <_>
      <internalNodes>
        0 -1 3219 -1348756207 -287539361 -1968766977 -1392657155
        -16793839 -1166082179 -537067691 -289901219</internalNodes>
      <leafValues>
        -2.2878906130790710e-001 1.4698895812034607e-001</leafValues></_>
    <_>
      <internalNodes>
        0 -1 739 -16783633 -202379289 -487921074 -253034902 1180648519
        2053597011 1693832278 -143132841</internalNodes>
      <leafValues>
        -2.4564164876937866e-001 1.3353705406188965e-001</leafValues></_>
    <_>
      <internalNodes>
        0 -1 3610 139067536 417858263 251538167 136847192 -1208610824
        -78709249 -268500998 -1343082498</internalNodes>
      <leafValues>
        -3.0202746391296387e-001 1.0929902642965317e-001</leafValues></_>
    <_>
      <internalNodes>
        0 -1 3387 -131932972 -60011340 -33693699 -537051683 -1153892420
        -1399030283 -1347436549 -1146415681</internalNodes>
      <leafValues>
        -1.2353737652301788e-001 2.6116895675659180e-001</leafValues></_>
    <_>
      <internalNodes>
        0 -1 1949 354899376 -1749475432 1069298997 -7342083 831796405
        -1342443571 891684145 -1074922099</internalNodes>
      <leafValues>
        -2.2627454996109009e-001 1.4065659046173096e-001</leafValues></_>
    <_>
      <internalNodes>
        0 -1 1134 -274008073 -420806676 -67115531 -289546755 -1343225857
        1325400061 -201328649 -541065729</internalNodes>
      <leafValues>
        -1.4731337130069733e-001 2.2039674222469330e-001</leafValues></_>
    <_>
      <internalNodes>
        0 -1 3148 -201853168 2010464085 754376376 82158759 -143136908
        1970615621 -2363686 -2006996737</internalNodes>
      <leafValues>
        -1.8044184148311615e-001 1.8090359866619110e-001</leafValues></_>
    <_>
      <internalNodes>
        0 -1 2807 -128928272 -151241134 1333737471 -248193 -1208959496
        -1074217031 -12730439 -1342496581</internalNodes>
      <leafValues>
        -1.4464057981967926e-001 2.2467245161533356e-001</leafValues></_>
    <_>
      <internalNodes>
        0 -1 1358 1461837645 1204767951 918871903 1088871626 -213975525
        -552611953 -214699149 1158147599</internalNodes>
      <leafValues>
        -2.4681335687637329e-001 1.3401424884796143e-001</leafValues></_>
    <_>
      <internalNodes>
        0 -1 550 2061697023 2102426751 1513127933 2130745502 2120506844
        -13992515 -9431700 -9089712</internalNodes>
      <leafValues>
        -1.8384869396686554e-001 1.7552153766155243e-001</leafValues></_>
    <_>
      <internalNodes>
        0 -1 3905 -4194389 -290460694 -642259150 -1573912 -70254593
        -1905266706 1442836981 -708313636</internalNodes>
      <leafValues>
        -1.4332774281501770e-001 2.2382353246212006e-001</leafValues></_>
    <_>
      <internalNodes>
        0 -1 2085 244256273 -320565380 -2158659 -1346753299 -1108525291
        -16777218 -1622223 -160944</internalNodes>
      <leafValues>
        -2.1418616175651550e-001 1.4786115288734436e-001</leafValues></_>
    <_>
      <internalNodes>
        0 -1 1203 1439519868 1873784360 -67108873 665792939 1414878581
        1878474236 2113885685 263159231</internalNodes>
      <leafValues>
        -2.8595340251922607e-001 1.0746847093105316e-001</leafValues></_>
    <_>
      <internalNodes>
        0 -1 2991 -672666400 286647716 -1094725636 -1648361729
        -152074780 19239172 -1913917462 166723019</internalNodes>
      <leafValues>
        -1.8357630074024200e-001 1.7083624005317688e-001</leafValues></_>
    <_>
      <internalNodes>
        0 -1 1815 1743626928 -420634882 637302065 -990427904 -1564821693
        -75563009 76381556 177133442</internalNodes>
      <leafValues>
        -1.8600226938724518e-001 1.6306945681571960e-001</leafValues></_>
    <_>
      <internalNodes>
        0 -1 2938 1517285295 2075656127 -595661278 -530294 70600703
        -1577105417 1927444703 -79736621</internalNodes>
      <leafValues>
        -1.7480076849460602e-001 1.8904684484004974e-001</leafValues></_>
    <_>
      <internalNodes>
        0 -1 2511 -265357438 -1058363734 -596704 -34626370 -1275855897
        2504628 2102916437 -984648197</internalNodes>
      <leafValues>
        -1.8360105156898499e-001 1.6705016791820526e-001</leafValues></_>
    <_>
      <internalNodes>
        0 -1 2123 1174028208 -33685569 2075122104 -1376342 2147418033
        -131073 -570436432 211861418</internalNodes>
      <leafValues>
        -2.1736322343349457e-001 1.4015881717205048e-001</leafValues></_>
    <_>
      <internalNodes>
        0 -1 3939 -537933053 66570159 141527552 12048365 -75776510
        117912157 -1565285472 576711647</internalNodes>
      <leafValues>
        -2.2068177163600922e-001 1.3349197804927826e-001</leafValues></_>
    <_>
      <internalNodes>
        0 -1 372 -603992401 -6709 -1603301829 1380638434 -545293310
        1578329680 1937766358 1346567774</internalNodes>
      <leafValues>
        -1.9917364418506622e-001 1.4989010989665985e-001</leafValues></_>
    <_>
      <internalNodes>
        0 -1 3798 -67184427 -570487041 1728012191 -135430145 -16768
        -134744225 -1163085144 -1423261717</internalNodes>
      <leafValues>
        -1.2312556803226471e-001 2.4796567857265472e-001</leafValues></_>
    <_>
      <internalNodes>
        0 -1 2036 -126943758 -218447953 -39523458 -139993331 1480853476
        -990887921 -35367169 2131182091</internalNodes>
      <leafValues>
        -1.6849765181541443e-001 1.7324042320251465e-001</leafValues></_>
    <_>
      <internalNodes>
        0 -1 1456 13550805 -822411778 1065330673 787280620 -1409318411
        -1101008897 -404228175 -1440424907</internalNodes>
      <leafValues>
        -2.5444748997688293e-001 1.1293341219425201e-001</leafValues></_>
    <_>
      <internalNodes>
        0 -1 3294 35714048 15794164 263186879 502661117 1467426566
        931135359 805252875 1061125903</internalNodes>
      <leafValues>
        -4.1477772593498230e-001 6.8896688520908356e-002</leafValues></_>
    <_>
      <internalNodes>
        0 -1 3393 212517904 1594363328 -1518340647 -3207944 799777201
        -1348944719 1073722875 -1074850561</internalNodes>
      <leafValues>
        -1.5688276290893555e-001 1.8854266405105591e-001</leafValues></_>
    <_>
      <internalNodes>
        0 -1 2502 -489706838 -337117331 -453595344 -453853449 -780672479
        206401475 -151077100 1693482869</internalNodes>
      <leafValues>
        -2.6107051968574524e-001 1.1191584914922714e-001</leafValues></_>
    <_>
      <internalNodes>
        0 -1 1904 1415315472 1570504976 2147295027 -572719619
        -1107479115 -160331 2142056889 143141277</internalNodes>
      <leafValues>
        -2.5152623653411865e-001 1.1007495969533920e-001</leafValues></_>
    <_>
      <internalNodes>
        0 -1 2715 -8395102 20177827 -487667678 552989410 2002743556
        125122235 1676993282 -253368626</internalNodes>
      <leafValues>
        -2.3350276052951813e-001 1.2433069944381714e-001</leafValues></_>
    <_>
      <internalNodes>
        0 -1 2831 3169904 452876222 -33939459 805246711 1026835508
        -16875777 985151867 733676602</internalNodes>
      <leafValues>
        -2.6193717122077942e-001 1.1002533882856369e-001</leafValues></_>
    <_>
      <internalNodes>
        0 -1 3523 -75497533 1393032963 1497363296 -1719140495 -268439638
        -2069910098 -676335392 -2131757089</internalNodes>
      <leafValues>
        -1.5892863273620605e-001 1.8503943085670471e-001</leafValues></_>
    <_>
      <internalNodes>
        0 -1 3750 242114388 110784262 -1074301100 843738714 -1572912
        -2166988 -134227984 -97845262</internalNodes>
      <leafValues>
        -2.3517833650112152e-001 1.2331285327672958e-001</leafValues></_>
    <_>
      <internalNodes>
        0 -1 3906 -536930289 -671090854 171340410 1651470335 -25479680
        2055163734 -93457672 1514332922</internalNodes>
      <leafValues>
        -1.9401590526103973e-001 1.4532014727592468e-001</leafValues></_>
    <_>
      <internalNodes>
        0 -1 784 -1094834147 -285217556 -285234371 -25507755 -1079321312
        -72195 -1364545782 -85155580</internalNodes>
      <leafValues>
        -1.9194717705249786e-001 1.4491035044193268e-001</leafValues></_>
    <_>
      <internalNodes>
        0 -1 1509 -256852748 -454547970 -6162817 -1342696259 -1352908867
        -4194307 1069381055 790301997</internalNodes>
      <leafValues>
        -1.8861977756023407e-001 1.4894492924213409e-001</leafValues></_>
    <_>
      <internalNodes>
        0 -1 1914 2010735401 355667729 818938368 286296576 206442219
        84542500 -1058486136 270594560</internalNodes>
      <leafValues>
        -2.9331651329994202e-001 9.3760132789611816e-002</leafValues></_>
    <_>
      <internalNodes>
        0 -1 1044 -419542017 -629217281 -352420099 16317674 -8422043
        1719664575 1714845558 1390863604</internalNodes>
      <leafValues>
        -2.3481902480125427e-001 1.1748401075601578e-001</leafValues></_>
    <_>
      <internalNodes>
        0 -1 1989 50528256 -930433632 804742993 -134284052 285718459
        -1989214731 118969349 -846281276</internalNodes>
      <leafValues>
        -2.3351193964481354e-001 1.1595745384693146e-001</leafValues></_>
    <_>
      <internalNodes>
        0 -1 0 -340005973 -1901139602 1023409874 -1060469508 2137913023
        113503222 1968698689 1434440393</internalNodes>
      <leafValues>
        -2.2242817282676697e-001 1.2133346498012543e-001</leafValues></_>
    <_>
      <internalNodes>
        0 -1 3336 -804863770 1357860343 552001471 6352891 -261749244
        -78686379 -77271057 -214237189</internalNodes>
      <leafValues>
        -1.7458498477935791e-001 1.5646664798259735e-001</leafValues></_>
    <_>
      <internalNodes>
        0 -1 2274 850815886 -1603124242 1870064126 -269828946 355542927
        1082157039 792166031 1326675579</internalNodes>
      <leafValues>
        -2.0004642009735107e-001 1.3757139444351196e-001</leafValues></_>
    <_>
      <internalNodes>
        0 -1 2812 1600120445 1413527068 -1358991772 -1920631583
        -12584585 -176851627 -1074006269 791674687</internalNodes>
      <leafValues>
        -1.9203589856624603e-001 1.3940510153770447e-001</leafValues></_>
    <_>
      <internalNodes>
        0 -1 3690 -54897419 -184664961 -50348257 -152583 -4276592 -90497
        -1078411365 -1413806913</internalNodes>
      <leafValues>
        -1.0293967276811600e-001 2.5782975554466248e-001</leafValues></_>
    <_>
      <internalNodes>
        0 -1 2338 738536449 -1632874754 -1612832865 -1821604437
        -1078149307 -17039873 -810466876 -1427359740</internalNodes>
      <leafValues>
        -2.2396564483642578e-001 1.1976203322410583e-001</leafValues></_>
    <_>
      <internalNodes>
        0 -1 3552 -66929615 -2219012 -51020097 -42082563 -1147076844
        -33588099 -1347904229 -1414849185</internalNodes>
      <leafValues>
        -1.2728999555110931e-001 2.1476031839847565e-001</leafValues></_>
    <_>
      <internalNodes>
        0 -1 3003 931408 345508574 536416255 -1611915539 -1073954912
        -18202732 -1098044744 -1883568070</internalNodes>
      <leafValues>
        -1.8415601551532745e-001 1.4178736507892609e-001</leafValues></_>
    <_>
      <internalNodes>
        0 -1 3328 46328558 31141629 179187386 799223789 2044876646
        2061913902 -1100296241 -12227291</internalNodes>
      <leafValues>
        -2.6427870988845825e-001 9.9423639476299286e-002</leafValues></_></weakClassifiers></stage13>
</opencv_storage>
