<?xml version="1.0"?>
<opencv_storage>
<stage5>
  <maxWeakCount>20</maxWeakCount>
  <stageThreshold>-3.4433236122131348e+000</stageThreshold>
  <weakClassifiers>
    <_>
      <internalNodes>
        0 -1 2140 -1 -1 -1 -18 -1 -1 -18 -1048626</internalNodes>
      <leafValues>
        -8.6746424436569214e-001 -1.0469714179635048e-002</leafValues></_>
    <_>
      <internalNodes>
        0 -1 1185 -1025 -4097 -21573 -1140872517 -65 -1 -21829 -67130437</internalNodes>
      <leafValues>
        -6.3245689868927002e-001 3.0005800724029541e-001</leafValues></_>
    <_>
      <internalNodes>
        0 -1 3951 -205 -268435457 -139 -1 -134219977 2004352887
        -134744204 -1</internalNodes>
      <leafValues>
        -4.2717802524566650e-001 4.9269458651542664e-001</leafValues></_>
    <_>
      <internalNodes>
        0 -1 1306 -176687808 -143130633 -10788 -1 1431631220 -8912905
        -781070082 -1</internalNodes>
      <leafValues>
        -5.1998317241668701e-001 3.3473166823387146e-001</leafValues></_>
    <_>
      <internalNodes>
        0 -1 3116 -791609345 1440604127 -202113025 -142606337 1079039477
        -572522497 -235405313 -1</internalNodes>
      <leafValues>
        -4.1343262791633606e-001 4.0264585614204407e-001</leafValues></_>
    <_>
      <internalNodes>
        0 -1 12 -286265361 -286330881 -1 -285217025 -1 1342177279 -1 -1</internalNodes>
      <leafValues>
        -3.9625278115272522e-001 4.5113927125930786e-001</leafValues></_>
    <_>
      <internalNodes>
        0 -1 2934 -285236734 -2100302897 -420501982 -152572182
        1935622663 -2049 -201328862 -82</internalNodes>
      <leafValues>
        -4.6141576766967773e-001 3.2983547449111938e-001</leafValues></_>
    <_>
      <internalNodes>
        0 -1 175 -353448370 -353374209 -287166721 -352383233 -143165612
        -16777217 -589964 -4097</internalNodes>
      <leafValues>
        -4.0910053253173828e-001 3.2432812452316284e-001</leafValues></_>
    <_>
      <internalNodes>
        0 -1 1582 -252248848 -33565217 1079048055 1308574171 -7667781
        -516 992214011 2145364650</internalNodes>
      <leafValues>
        -5.0078952312469482e-001 2.3918622732162476e-001</leafValues></_>
    <_>
      <internalNodes>
        0 -1 3660 -209 -1 -1 -218103809 -33007 2139094911 -262345 -1</internalNodes>
      <leafValues>
        -3.4759202599525452e-001 3.9362162351608276e-001</leafValues></_>
    <_>
      <internalNodes>
        0 -1 737 -84934962 -823202066 -269488305 -271585745 -1048828
        1145371534 -2097329 1330642767</internalNodes>
      <leafValues>
        -4.5966973900794983e-001 2.6286581158638000e-001</leafValues></_>
    <_>
      <internalNodes>
        0 -1 3476 4325598 284168191 721161983 2012811007 1987710719
        -35690753 -135169 -53249</internalNodes>
      <leafValues>
        -4.2185622453689575e-001 2.7254843711853027e-001</leafValues></_>
    <_>
      <internalNodes>
        0 -1 3769 -77 -1976893533 -536874064 -1431634142 -67110989
        -1916796961 -134744672 -704643085</internalNodes>
      <leafValues>
        -3.2452565431594849e-001 3.3190208673477173e-001</leafValues></_>
    <_>
      <internalNodes>
        0 -1 3219 -51405 -16809985 -4194305 -16385 -32911 -262273 -129
        -32769</internalNodes>
      <leafValues>
        -2.3193380236625671e-001 4.4072616100311279e-001</leafValues></_>
    <_>
      <internalNodes>
        0 -1 1895 -437801031 -276844749 -138829511 -281827550
        -1964004673 -1342177313 -1530953542 -271742036</internalNodes>
      <leafValues>
        -3.2769909501075745e-001 3.3192786574363708e-001</leafValues></_>
    <_>
      <internalNodes>
        0 -1 2815 -657400364 -50588420 -360449 -193795 -1087324240
        -458835 -1078412359 -1078263624</internalNodes>
      <leafValues>
        -2.5632292032241821e-001 3.8618957996368408e-001</leafValues></_>
    <_>
      <internalNodes>
        0 -1 2823 808456528 -50590500 -1 -1073799681 -1346846800
        -1073991683 -1078018049 -1141174853</internalNodes>
      <leafValues>
        -2.7541911602020264e-001 3.8029894232749939e-001</leafValues></_>
    <_>
      <internalNodes>
        0 -1 339 -25167137 -159383809 -419500294 -529862930 -285256635
        -8915073 -151006140 -159908097</internalNodes>
      <leafValues>
        -3.2771217823028564e-001 3.3241778612136841e-001</leafValues></_>
    <_>
      <internalNodes>
        0 -1 2200 -268435534 67174192 -521112560 -990840912 -301273414
        150836912 -59445665 -436208645</internalNodes>
      <leafValues>
        -3.3875313401222229e-001 2.8765067458152771e-001</leafValues></_>
    <_>
      <internalNodes>
        0 -1 2872 -389766656 -1347 -19021833 -201330825 -138412107 -4121
        -134153 -1427234304</internalNodes>
      <leafValues>
        -3.8018894195556641e-001 2.4839402735233307e-001</leafValues></_></weakClassifiers></stage5>
</opencv_storage>
