<?xml version="1.0"?>
<opencv_storage>
<stage11>
  <maxWeakCount>53</maxWeakCount>
  <stageThreshold>-3.3337359428405762e+000</stageThreshold>
  <weakClassifiers>
    <_>
      <internalNodes>
        0 -1 1156 -1 -1 -1093 -67130693 -1 -1 -69 -67126597</internalNodes>
      <leafValues>
        -8.4978967905044556e-001 -3.0562135577201843e-001</leafValues></_>
    <_>
      <internalNodes>
        0 -1 1953 -9 859043635 -1 -134217737 -2049 -1073741825 -1 -1</internalNodes>
      <leafValues>
        -4.9003881216049194e-001 2.3723524808883667e-001</leafValues></_>
    <_>
      <internalNodes>
        0 -1 3660 -1 -1 -1 -201326593 -171 2139094911 -141 -1</internalNodes>
      <leafValues>
        -3.6222672462463379e-001 3.3463346958160400e-001</leafValues></_>
    <_>
      <internalNodes>
        0 -1 3304 1078249166 1440088063 -1375735809 -1 1677131951 -12289
        -4113 -4113</internalNodes>
      <leafValues>
        -4.5113360881805420e-001 2.3926419019699097e-001</leafValues></_>
    <_>
      <internalNodes>
        0 -1 42 -269488129 -286609666 -268435457 -286350593 -1
        1207959551 -1 -1</internalNodes>
      <leafValues>
        -3.0302488803863525e-001 3.3527365326881409e-001</leafValues></_>
    <_>
      <internalNodes>
        0 -1 2096 -270 -258 1875902066 -807409938 -14 -1 2001207042
        2144336618</internalNodes>
      <leafValues>
        -3.6454686522483826e-001 2.5967240333557129e-001</leafValues></_>
    <_>
      <internalNodes>
        0 -1 313 -1 -1 -14487830 -1121558 -2097281 -137 -12517546
        -11536649</internalNodes>
      <leafValues>
        -2.9537475109100342e-001 2.9543688893318176e-001</leafValues></_>
    <_>
      <internalNodes>
        0 -1 2872 -19005532 -4185 -1 -4177 -135266385 -4178 -2129
        -288365054</internalNodes>
      <leafValues>
        -2.2912414371967316e-001 3.4205773472785950e-001</leafValues></_>
    <_>
      <internalNodes>
        0 -1 3653 -13 -89 -134219792 -168296463 -85 -805310549
        -134219789 -1</internalNodes>
      <leafValues>
        -1.7613475024700165e-001 4.3035122752189636e-001</leafValues></_>
    <_>
      <internalNodes>
        0 -1 2563 -655303172 -504321 -65537 -57857 -1137656392 -499715
        -1078411336 -1078262341</internalNodes>
      <leafValues>
        -1.8619967997074127e-001 4.0140292048454285e-001</leafValues></_>
    <_>
      <internalNodes>
        0 -1 3117 1074851070 1280658654 856947967 1896963295 1079035124
        -562115521 -246285313 -8913153</internalNodes>
      <leafValues>
        -3.8789772987365723e-001 1.8398614227771759e-001</leafValues></_>
    <_>
      <internalNodes>
        0 -1 3754 -9 -857742353 -268439584 -454098962 -49 -805568513
        -402668416 -1058013186</internalNodes>
      <leafValues>
        -2.5637084245681763e-001 2.6121076941490173e-001</leafValues></_>
    <_>
      <internalNodes>
        0 -1 2151 -654517028 -598735536 -66049 420503005 -67305476 -4100
        -4391169 -1172767016</internalNodes>
      <leafValues>
        -3.1148669123649597e-001 2.1466016769409180e-001</leafValues></_>
    <_>
      <internalNodes>
        0 -1 2555 -791620368 -654549762 2147287029 -33736195 335558128
        -1125091852 -5193795 -1145368133</internalNodes>
      <leafValues>
        -2.1256588399410248e-001 3.0749869346618652e-001</leafValues></_>
    <_>
      <internalNodes>
        0 -1 1111 -486617534 -1024790785 -287355377 -889229585
        -823865532 1157255151 -808497329 1342132063</internalNodes>
      <leafValues>
        -3.8675874471664429e-001 1.6748940944671631e-001</leafValues></_>
    <_>
      <internalNodes>
        0 -1 200 -352391425 40565407 -1474256336 536936126 -683386300
        1213226613 -162210048 -27918348</internalNodes>
      <leafValues>
        -3.0870294570922852e-001 1.9330172240734100e-001</leafValues></_>
    <_>
      <internalNodes>
        0 -1 3705 -587213820 337056853 213634061 211804127 -50348920
        -1870664323 -1430280056 -1430257665</internalNodes>
      <leafValues>
        -2.5316220521926880e-001 2.3383824527263641e-001</leafValues></_>
    <_>
      <internalNodes>
        0 -1 1891 -219091072 1433732373 586230579 1173821203 -97845329
        -32897 -1145847893 2012704523</internalNodes>
      <leafValues>
        -3.3542874455451965e-001 1.6519589722156525e-001</leafValues></_>
    <_>
      <internalNodes>
        0 -1 3030 -1359016909 -285246465 -1409552451 -268435473 -49355
        -4456449 -1075183867 -4206661</internalNodes>
      <leafValues>
        -2.6080033183097839e-001 2.1539513766765594e-001</leafValues></_>
    <_>
      <internalNodes>
        0 -1 2695 -285220350 44039103 -285282590 16115694 -8440060
        -1157897353 -137470 -520097841</internalNodes>
      <leafValues>
        -3.4243974089622498e-001 1.6149385273456573e-001</leafValues></_>
    <_>
      <internalNodes>
        0 -1 3015 -2135371532 -17035780 -1073807361 -152323 -1174601732
        -197155 -1078149125 -1073804545</internalNodes>
      <leafValues>
        -1.9513866305351257e-001 2.9956889152526855e-001</leafValues></_>
    <_>
      <internalNodes>
        0 -1 1444 -16790817 -83947905 -226723074 1349185150 -696269300
        -562557148 -730805032 -268238886</internalNodes>
      <leafValues>
        -2.2494703531265259e-001 2.2166956961154938e-001</leafValues></_>
    <_>
      <internalNodes>
        0 -1 1630 259466515 -1352716489 -34196207 -550433757 -2133545030
        -1883258949 -2848070 -287399286</internalNodes>
      <leafValues>
        -2.3813131451606750e-001 2.1354104578495026e-001</leafValues></_>
    <_>
      <internalNodes>
        0 -1 3207 -1945447184 -537387812 -1342210049 -1073799683
        -1161841159 -1073741827 1069498367 -1078262593</internalNodes>
      <leafValues>
        -1.7626698315143585e-001 2.8165784478187561e-001</leafValues></_>
    <_>
      <internalNodes>
        0 -1 35 -486558859 -251681548 181021444 -1997635520 -403708091
        -705239563 -269549753 -16779275</internalNodes>
      <leafValues>
        -2.8008201718330383e-001 1.8096712231636047e-001</leafValues></_>
    <_>
      <internalNodes>
        0 -1 1539 -1997003568 -50593572 -1077035011 -1074000675
        -1141522511 -1097793 -67567873 993727517</internalNodes>
      <leafValues>
        -2.3326173424720764e-001 2.1058961749076843e-001</leafValues></_>
    <_>
      <internalNodes>
        0 -1 3756 -16785580 -288407697 -545333392 309524254 -44
        -268444171 -151062848 -92602702</internalNodes>
      <leafValues>
        -2.6576009392738342e-001 1.8506190180778503e-001</leafValues></_>
    <_>
      <internalNodes>
        0 -1 3021 135270512 -1929507203 1069487613 805257215 1044264052
        -1073906179 800735099 800788026</internalNodes>
      <leafValues>
        -3.4323453903198242e-001 1.3879144191741943e-001</leafValues></_>
    <_>
      <internalNodes>
        0 -1 2259 -239078493 -1058888830 2111828245 -704645643
        1937242035 -2036932617 1433891109 -976235009</internalNodes>
      <leafValues>
        -1.9065898656845093e-001 2.5080198049545288e-001</leafValues></_>
    <_>
      <internalNodes>
        0 -1 3775 -3101 -807403537 -134219936 -76546438 -117 -1962934785
        -134744128 -135266305</internalNodes>
      <leafValues>
        -1.9123135507106781e-001 2.4126908183097839e-001</leafValues></_>
    <_>
      <internalNodes>
        0 -1 3552 -1137699536 -247299 -33718531 -8602115 -1146050288
        -1073815817 -1095229668 -1884811779</internalNodes>
      <leafValues>
        -2.9034090042114258e-001 1.6137591004371643e-001</leafValues></_>
    <_>
      <internalNodes>
        0 -1 1721 -18415874 -4182 -151587074 -42991954 1077953766
        -2040512506 1414808799 -548977585</internalNodes>
      <leafValues>
        -1.9348621368408203e-001 2.4347430467605591e-001</leafValues></_>
    <_>
      <internalNodes>
        0 -1 2910 307841834 1027600298 -1074910176 -4198624 1080970495
        1073704958 543180014 1898463264</internalNodes>
      <leafValues>
        -4.1464421153068542e-001 1.0848526656627655e-001</leafValues></_>
    <_>
      <internalNodes>
        0 -1 728 -152043793 -35393809 -93919666 -219218226 1984906823
        2004317542 -144190400 -145230241</internalNodes>
      <leafValues>
        -2.7498129010200500e-001 1.6060720384120941e-001</leafValues></_>
    <_>
      <internalNodes>
        0 -1 2571 135414864 -392108 -40961 1073682431 -1713594736
        -1612161444 -1074249735 -1078258145</internalNodes>
      <leafValues>
        -2.0536701381206512e-001 2.2149942815303802e-001</leafValues></_>
    <_>
      <internalNodes>
        0 -1 2747 -68180350 15655401 -419772928 -1058017297 -716704255
        4584773 -185079983 -705964561</internalNodes>
      <leafValues>
        -2.7908438444137573e-001 1.6247467696666718e-001</leafValues></_>
    <_>
      <internalNodes>
        0 -1 1464 858435210 976809983 2147462654 573746778 -21073 -65537
        2147323534 997953034</internalNodes>
      <leafValues>
        -3.9699828624725342e-001 1.0876513272523880e-001</leafValues></_>
    <_>
      <internalNodes>
        0 -1 2337 235671313 -1971016705 -20513 -1896960353 -1229547
        -4194305 -1073922251 -2584644</internalNodes>
      <leafValues>
        -2.6940909028053284e-001 1.5850324928760529e-001</leafValues></_>
    <_>
      <internalNodes>
        0 -1 2815 -293545004 -553895690 1073364983 -1107482115
        -1355481168 -67305988 -1078935649 -1953822711</internalNodes>
      <leafValues>
        -1.9112923741340637e-001 2.2636164724826813e-001</leafValues></_>
    <_>
      <internalNodes>
        0 -1 499 2136962766 564997806 -570460931 800009647 1416910196
        2003533823 1576949759 805261295</internalNodes>
      <leafValues>
        -2.7295559644699097e-001 1.5694917738437653e-001</leafValues></_>
    <_>
      <internalNodes>
        0 -1 3660 -135803635 -671088937 2029878924 2096480255 863376896
        -168331307 -134957940 1985213235</internalNodes>
      <leafValues>
        -2.4493223428726196e-001 1.6742157936096191e-001</leafValues></_>
    <_>
      <internalNodes>
        0 -1 2999 -125834012 269805092 -269619331 536727517 -62937115
        -1524619852 -1892700177 152033755</internalNodes>
      <leafValues>
        -1.9495844841003418e-001 2.0568752288818359e-001</leafValues></_>
    <_>
      <internalNodes>
        0 -1 378 -1414812741 -1431650386 1744774963 -657006600
        -134218253 78568161 -143132745 -674237953</internalNodes>
      <leafValues>
        -1.9762036204338074e-001 2.0860497653484344e-001</leafValues></_>
    <_>
      <internalNodes>
        0 -1 2560 -3145988 -58980612 -286273793 -1399853841 -145245391
        -110087823 -212862153 692054783</internalNodes>
      <leafValues>
        -2.3439909517765045e-001 1.6839188337326050e-001</leafValues></_>
    <_>
      <internalNodes>
        0 -1 1340 137251924 -50397442 -1885716481 -85274890 -353994924
        -8388609 -10977420 -360786736</internalNodes>
      <leafValues>
        -3.5819917917251587e-001 1.0794811695814133e-001</leafValues></_>
    <_>
      <internalNodes>
        0 -1 3443 -184913904 -994140033 -1847820931 -1929379843
        -1186808928 -1392623873 -288051447 168785695</internalNodes>
      <leafValues>
        -2.2198872268199921e-001 1.7904771864414215e-001</leafValues></_>
    <_>
      <internalNodes>
        0 -1 1274 -65008432 -505872 1040084991 -8567596 1059073968
        -1095778569 2146908155 -539033207</internalNodes>
      <leafValues>
        -1.7638559639453888e-001 2.2001458704471588e-001</leafValues></_>
    <_>
      <internalNodes>
        0 -1 1455 -285280321 -287522837 -4325491 -272766209 -75497677 -5
        -65665 -71569925</internalNodes>
      <leafValues>
        -1.5513582527637482e-001 2.6199623942375183e-001</leafValues></_>
    <_>
      <internalNodes>
        0 -1 3348 -218634513 1375465405 -1468596516 1886650111
        -531389372 1971273012 -228343926 -216793329</internalNodes>
      <leafValues>
        -1.5945558249950409e-001 2.3807126283645630e-001</leafValues></_>
    <_>
      <internalNodes>
        0 -1 3716 -1077936368 787808254 -1345339715 -1342701585
        939512201 888929911 1068736184 -1476396294</internalNodes>
      <leafValues>
        -2.0847274363040924e-001 1.8042592704296112e-001</leafValues></_>
    <_>
      <internalNodes>
        0 -1 360 -84152693 -26218545 -287377334 1351024622 -69310720
        1583281950 -145240762 1884487454</internalNodes>
      <leafValues>
        -2.4834671616554260e-001 1.5501862764358521e-001</leafValues></_>
    <_>
      <internalNodes>
        0 -1 2559 -92274700 1951704920 -1376784417 -1356886785 -2830924
        -1108019212 -1074925763 191884159</internalNodes>
      <leafValues>
        -1.8071441352367401e-001 2.1585369110107422e-001</leafValues></_>
    <_>
      <internalNodes>
        0 -1 2215 -536877169 322041621 -25428112 2109731667 2113890182
        261578679 -566 -118424590</internalNodes>
      <leafValues>
        -1.6739328205585480e-001 2.2574460506439209e-001</leafValues></_></weakClassifiers></stage11>
</opencv_storage>
