<?xml version="1.0"?>
<opencv_storage>
<stage3>
  <maxWeakCount>13</maxWeakCount>
  <stageThreshold>-3.3945209980010986e+000</stageThreshold>
  <weakClassifiers>
    <_>
      <internalNodes>
        0 -1 1815 -1 -4097 -21761 -21761 -65 -1 -21829 -21825</internalNodes>
      <leafValues>
        -9.0080636739730835e-001 1.3375547528266907e-001</leafValues></_>
    <_>
      <internalNodes>
        0 -1 807 -1 1069498287 -1 724512687 -1 -1 -1 801112063</internalNodes>
      <leafValues>
        -8.2104510068893433e-001 9.3540489673614502e-002</leafValues></_>
    <_>
      <internalNodes>
        0 -1 314 -257 -257 -286342430 -487669014 -137 -129 -67122108
        -14641</internalNodes>
      <leafValues>
        -5.4339581727981567e-001 4.6305209398269653e-001</leafValues></_>
    <_>
      <internalNodes>
        0 -1 3305 -1061093650 1079311837 -69009409 -1 -791360316
        -570425345 -134217809 -1</internalNodes>
      <leafValues>
        -6.3971310853958130e-001 3.6214309930801392e-001</leafValues></_>
    <_>
      <internalNodes>
        0 -1 3534 -233 -1 -1 -1 -33003 -8388737 -205 -1</internalNodes>
      <leafValues>
        -3.7914907932281494e-001 5.7869386672973633e-001</leafValues></_>
    <_>
      <internalNodes>
        0 -1 1626 -352345565 -8941769 -1594383821 -7425 -289427521
        -21585 -67130437 -263173</internalNodes>
      <leafValues>
        -4.3259596824645996e-001 4.7152233123779297e-001</leafValues></_>
    <_>
      <internalNodes>
        0 -1 42 -269488129 -1360089362 -268435457 -286347521 -1
        1207959551 -2049 -1</internalNodes>
      <leafValues>
        -3.6562898755073547e-001 5.0736129283905029e-001</leafValues></_>
    <_>
      <internalNodes>
        0 -1 3761 -5 -357630037 -16778320 -1432162390 -13 -822083585
        -705171200 -4194381</internalNodes>
      <leafValues>
        -3.4072393178939819e-001 5.1139372587203979e-001</leafValues></_>
    <_>
      <internalNodes>
        0 -1 2947 -85004800 -856887381 -1474253824 -318970449 -145464316
        -44712155 -178999804 -17</internalNodes>
      <leafValues>
        -5.0263583660125732e-001 3.3428901433944702e-001</leafValues></_>
    <_>
      <internalNodes>
        0 -1 1282 -178916096 -73011282 -570471307 -4945 1968461685
        -524289 -585769537 -68161537</internalNodes>
      <leafValues>
        -4.8509961366653442e-001 3.0890318751335144e-001</leafValues></_>
    <_>
      <internalNodes>
        0 -1 3139 1122495231 16018175 -285212673 -4613 1179010175
        2147381119 -65537 -4371</internalNodes>
      <leafValues>
        -3.5792037844657898e-001 3.4811207652091980e-001</leafValues></_>
    <_>
      <internalNodes>
        0 -1 270 -285217025 -1023488005 -352391442 -524357906 -134480009
        1719664511 -2097229 -1</internalNodes>
      <leafValues>
        -2.9711589217185974e-001 4.2918246984481812e-001</leafValues></_>
    <_>
      <internalNodes>
        0 -1 2127 -2009592676 -1996747532 1073544703 -1667708452 -83459
        -19136515 -1141047815 -1163358468</internalNodes>
      <leafValues>
        -4.2395159602165222e-001 2.7801772952079773e-001</leafValues></_></weakClassifiers></stage3>
</opencv_storage>
