<?xml version="1.0"?>
<opencv_storage>
<stage7>
  <maxWeakCount>25</maxWeakCount>
  <stageThreshold>-3.4782848358154297e+000</stageThreshold>
  <weakClassifiers>
    <_>
      <internalNodes>
        0 -1 1500 -1 -4097 -17409 -21761 -65 -1 -17477 -21829</internalNodes>
      <leafValues>
        -8.9318746328353882e-001 -2.1323026716709137e-001</leafValues></_>
    <_>
      <internalNodes>
        0 -1 1910 -1 859043635 -65 868218679 -1 -1073741825 -4097
        -1140853765</internalNodes>
      <leafValues>
        -6.2693035602569580e-001 2.5806137919425964e-001</leafValues></_>
    <_>
      <internalNodes>
        0 -1 3291 -801046530 1565908991 -72155137 -4456449 -792662804
        -33554433 -77332497 -1</internalNodes>
      <leafValues>
        -5.7561480998992920e-001 2.9947558045387268e-001</leafValues></_>
    <_>
      <internalNodes>
        0 -1 6 -268439553 -286326785 -1 -285212673 -1 1342177279
        -134219777 -1</internalNodes>
      <leafValues>
        -3.8910067081451416e-001 3.8431254029273987e-001</leafValues></_>
    <_>
      <internalNodes>
        0 -1 933 -8716480 -9175042 -541073665 -2337 1430279508 -76021761
        1598542941 -1</internalNodes>
      <leafValues>
        -4.8099514842033386e-001 3.1865635514259338e-001</leafValues></_>
    <_>
      <internalNodes>
        0 -1 3244 -2859 -1 -285212929 -1 -33569596 -33554433 -857863100
        -318767105</internalNodes>
      <leafValues>
        -3.4242564439773560e-001 3.7847387790679932e-001</leafValues></_>
    <_>
      <internalNodes>
        0 -1 2950 -218110161 -201331713 -16781313 -201326593 1953974143
        1988067327 -150994945 -201326593</internalNodes>
      <leafValues>
        -3.4228232502937317e-001 3.7982290983200073e-001</leafValues></_>
    <_>
      <internalNodes>
        0 -1 3363 -50 -553648129 -88 -117441538 -18 -855638017 -8
        -251658241</internalNodes>
      <leafValues>
        -3.4591078758239746e-001 3.1368109583854675e-001</leafValues></_>
    <_>
      <internalNodes>
        0 -1 2205 -285219277 -1 -1002117552 -268435713 -16781313
        -1093726518 -528385 -20849</internalNodes>
      <leafValues>
        -2.2983840107917786e-001 4.3707415461540222e-001</leafValues></_>
    <_>
      <internalNodes>
        0 -1 3400 -139460864 83951360 -138414832 -1658323039 -1073741901
        -1960313053 -1476398688 -1145045085</internalNodes>
      <leafValues>
        -3.3500254154205322e-001 2.9387539625167847e-001</leafValues></_>
    <_>
      <internalNodes>
        0 -1 1764 -1359040769 -1895911425 -1 -1359171841 -1073741825
        -268435457 -1 -268443649</internalNodes>
      <leafValues>
        -2.6781439781188965e-001 3.4932157397270203e-001</leafValues></_>
    <_>
      <internalNodes>
        0 -1 1937 325001731 322139955 -260839365 -168305805 -1911910737
        857159479 -76350549 -201851976</internalNodes>
      <leafValues>
        -3.3650830388069153e-001 2.9378613829612732e-001</leafValues></_>
    <_>
      <internalNodes>
        0 -1 293 -16777473 -16781713 -16848130 811780682 -537275
        -10518665 -16791468 -193471402</internalNodes>
      <leafValues>
        -3.2991996407508850e-001 2.7359879016876221e-001</leafValues></_>
    <_>
      <internalNodes>
        0 -1 3015 3150964 -34074627 -1073790977 -1073791489 -1078149195
        -515 -1077985281 -1346437062</internalNodes>
      <leafValues>
        -2.9203331470489502e-001 2.9241141676902771e-001</leafValues></_>
    <_>
      <internalNodes>
        0 -1 3030 -285266125 -285278241 -268435457 -285212673 -16587 -5
        -129 -1</internalNodes>
      <leafValues>
        -2.4914468824863434e-001 3.4229710698127747e-001</leafValues></_>
    <_>
      <internalNodes>
        0 -1 3715 -134220800 16766037 -1365275128 218103807 -73418360
        -1426064385 -1431328120 -1427113217</internalNodes>
      <leafValues>
        -3.1513309478759766e-001 2.5064435601234436e-001</leafValues></_>
    <_>
      <internalNodes>
        0 -1 166 -251726252 -118037266 -1970623729 -1996610358
        -136841744 -2561 -1328321 -21521</internalNodes>
      <leafValues>
        -4.2374128103256226e-001 1.8190103769302368e-001</leafValues></_>
    <_>
      <internalNodes>
        0 -1 3773 -93 -282069069 -2576 -34603102 -268435525 -1901076497
        -705203840 -570425357</internalNodes>
      <leafValues>
        -2.3576672375202179e-001 3.2925915718078613e-001</leafValues></_>
    <_>
      <internalNodes>
        0 -1 3009 -800000816 -36416260 -589825 -213251 -1078151180
        -197127 -1073856515 -1145372549</internalNodes>
      <leafValues>
        -2.2995100915431976e-001 3.3606839179992676e-001</leafValues></_>
    <_>
      <internalNodes>
        0 -1 2110 -1068840756 -151593140 -65537 -117903412 -369381428
        -8209 -21049400 -1460081460</internalNodes>
      <leafValues>
        -4.2733484506607056e-001 1.8201415240764618e-001</leafValues></_>
    <_>
      <internalNodes>
        0 -1 1130 -286333202 -16847122 -499724562 -227613969 1179977280
        -16822969 1817660495 -47505</internalNodes>
      <leafValues>
        -3.3890983462333679e-001 2.1684485673904419e-001</leafValues></_>
    <_>
      <internalNodes>
        0 -1 1619 1903554865 832632611 -50335483 -1073742017 1968535032
        -1346502721 2112829677 -1111624049</internalNodes>
      <leafValues>
        -2.7319753170013428e-001 2.4848017096519470e-001</leafValues></_>
    <_>
      <internalNodes>
        0 -1 246 -285217041 -495980821 -486611930 -523833606 2002470663
        8093503 2147413782 -136316961</internalNodes>
      <leafValues>
        -2.8473380208015442e-001 2.3973806202411652e-001</leafValues></_>
    <_>
      <internalNodes>
        0 -1 2369 1999504544 -1069393 -131137 2142121898 2130572721 -1
        1088230576 1202652322</internalNodes>
      <leafValues>
        -4.0818014740943909e-001 1.6551326215267181e-001</leafValues></_>
    <_>
      <internalNodes>
        0 -1 3003 269497844 -721669388 1031553021 -570671363 -1074464783
        -1090766851 -1078640647 -1078263109</internalNodes>
      <leafValues>
        -2.2616280615329742e-001 2.9089510440826416e-001</leafValues></_></weakClassifiers></stage7>
</opencv_storage>
