<?xml version="1.0"?>
<opencv_storage>
<stage12>
  <maxWeakCount>63</maxWeakCount>
  <stageThreshold>-3.3090822696685791e+000</stageThreshold>
  <weakClassifiers>
    <_>
      <internalNodes>
        0 -1 3535 -1 -1 -1 -1 -3 -33554433 -3 -1</internalNodes>
      <leafValues>
        -8.1525737047195435e-001 -1.8579235672950745e-001</leafValues></_>
    <_>
      <internalNodes>
        0 -1 2162 -17 -1 -35783762 -4194386 -4097 -1 -3831638 -134231122</internalNodes>
      <leafValues>
        -6.0352975130081177e-001 8.4340855479240417e-002</leafValues></_>
    <_>
      <internalNodes>
        0 -1 1283 -178915856 -9043970 -570436363 -1 1561460735 -8912897
        1606409727 -1</internalNodes>
      <leafValues>
        -4.3759286403656006e-001 2.2577804327011108e-001</leafValues></_>
    <_>
      <internalNodes>
        0 -1 3345 -540016692 -589496324 -4 -570556418 -3 -50331649 -1032
        -117440518</internalNodes>
      <leafValues>
        -3.7974968552589417e-001 2.4714149534702301e-001</leafValues></_>
    <_>
      <internalNodes>
        0 -1 6 -268439553 -286330881 -1 -285212929 -1 1207959551
        -134219777 -1</internalNodes>
      <leafValues>
        -2.9314863681793213e-001 3.1890994310379028e-001</leafValues></_>
    <_>
      <internalNodes>
        0 -1 2452 -4165 -285212751 -285938176 -318963801 -16781637
        -1145327701 -17436873 -4177</internalNodes>
      <leafValues>
        -2.3181529343128204e-001 3.3806368708610535e-001</leafValues></_>
    <_>
      <internalNodes>
        0 -1 592 573910847 -14744030 -1364021313 -153425 1073692479
        -143184001 -1346687169 -53317</internalNodes>
      <leafValues>
        -2.8741654753684998e-001 2.4999129772186279e-001</leafValues></_>
    <_>
      <internalNodes>
        0 -1 3401 -109 -538968097 -134219823 -167772161 -85 -1078984785
        -134219853 -5</internalNodes>
      <leafValues>
        -1.4626833796501160e-001 4.3237507343292236e-001</leafValues></_>
    <_>
      <internalNodes>
        0 -1 2632 -1 -1 -1 -1 -1 -4113 -33 -352326137</internalNodes>
      <leafValues>
        -1.4523819088935852e-001 4.3694153428077698e-001</leafValues></_>
    <_>
      <internalNodes>
        0 -1 292 -16777217 -152043537 -16851202 -253563190 -67109041
        -8388737 -2097340 -134744234</internalNodes>
      <leafValues>
        -2.5082799792289734e-001 2.5173228979110718e-001</leafValues></_>
    <_>
      <internalNodes>
        0 -1 3198 -30351884 -2618116 -8193 -4453123 -1145258504 -197123
        -1078394881 -1078326213</internalNodes>
      <leafValues>
        -1.9788841903209686e-001 3.0232018232345581e-001</leafValues></_>
    <_>
      <internalNodes>
        0 -1 1793 -454035465 -923861505 -286282747 -823144881 -151586830
        -218169345 610541600 -318767105</internalNodes>
      <leafValues>
        -2.6612460613250732e-001 2.1817767620086670e-001</leafValues></_>
    <_>
      <internalNodes>
        0 -1 3204 -860859152 -17036036 -1073774593 -16385 -1094860808
        -1073988100 -1077952513 -1077993537</internalNodes>
      <leafValues>
        -1.8911445140838623e-001 3.1823810935020447e-001</leafValues></_>
    <_>
      <internalNodes>
        0 -1 1969 822325552 -1850608240 1073681717 -16481 926266813
        -1077936195 1067398449 -2122307</internalNodes>
      <leafValues>
        -2.9664745926856995e-001 2.0300874114036560e-001</leafValues></_>
    <_>
      <internalNodes>
        0 -1 3324 1114768079 2063273727 586346239 584822527 1719354959
        -193048961 -134222849 -201330945</internalNodes>
      <leafValues>
        -3.0218571424484253e-001 1.8155710399150848e-001</leafValues></_>
    <_>
      <internalNodes>
        0 -1 3918 -8945 -67108865 989321823 -757071905 -8421376
        2002747219 -218449406 -209715205</internalNodes>
      <leafValues>
        -2.0827181637287140e-001 2.7496746182441711e-001</leafValues></_>
    <_>
      <internalNodes>
        0 -1 1440 -17903922 -67154193 -488444162 -226516242 1078214724
        -565296057 2084855519 -8435897</internalNodes>
      <leafValues>
        -2.6648199558258057e-001 2.0423276722431183e-001</leafValues></_>
    <_>
      <internalNodes>
        0 -1 1824 -1945106188 -1932786468 -1619984897 260574621 -475143
        -3 -1073741825 -1154998467</internalNodes>
      <leafValues>
        -3.0778574943542480e-001 1.6436423361301422e-001</leafValues></_>
    <_>
      <internalNodes>
        0 -1 3384 -2097157 -939462480 -859877208 67130496 -272632389
        -1910261958 -2017729886 135004075</internalNodes>
      <leafValues>
        -2.9208859801292419e-001 1.6943675279617310e-001</leafValues></_>
    <_>
      <internalNodes>
        0 -1 143 -366809374 -1408278 790760739 -546963422 656568306
        1205038583 1598379895 -43177</internalNodes>
      <leafValues>
        -2.4502851068973541e-001 2.0663140714168549e-001</leafValues></_>
    <_>
      <internalNodes>
        0 -1 3574 -1744783184 -51114756 -394243 -33804971 -1207918664
        -86018 -1156530243 193462685</internalNodes>
      <leafValues>
        -2.7757877111434937e-001 1.7783585190773010e-001</leafValues></_>
    <_>
      <internalNodes>
        0 -1 2162 -671249480 -12669013 1922303737 -1281318151 1610554797
        -4256321 1350326237 -56296227</internalNodes>
      <leafValues>
        -1.5738664567470551e-001 3.2513406872749329e-001</leafValues></_>
    <_>
      <internalNodes>
        0 -1 3408 -193 -16777217 -285220865 -1 -715 -8388805 -1185
        -6291489</internalNodes>
      <leafValues>
        -1.7302148044109344e-001 2.8543174266815186e-001</leafValues></_>
    <_>
      <internalNodes>
        0 -1 2946 -68162902 2336718 -524296190 -990908534 1947682310
        611546950 -148376058 -212863058</internalNodes>
      <leafValues>
        -2.8917548060417175e-001 1.6908851265907288e-001</leafValues></_>
    <_>
      <internalNodes>
        0 -1 1892 -50397478 -706930347 1626406673 1172265743 -1310785
        -807403569 -1142177861 2145335323</internalNodes>
      <leafValues>
        -2.8851017355918884e-001 1.7088896036148071e-001</leafValues></_>
    <_>
      <internalNodes>
        0 -1 2799 68162576 1559758896 261898101 502794298 674502640
        -1091289551 1065037819 725295162</internalNodes>
      <leafValues>
        -2.7519291639328003e-001 1.6406780481338501e-001</leafValues></_>
    <_>
      <internalNodes>
        0 -1 367 -257 -6417 -16843010 -219619618 -8353 -8388737
        -16777353 -134217729</internalNodes>
      <leafValues>
        -1.8870793282985687e-001 2.4282343685626984e-001</leafValues></_>
    <_>
      <internalNodes>
        0 -1 3031 -27101391 -54641665 -4194305 -237633 -43 -1 -287310371
        -589529763</internalNodes>
      <leafValues>
        -2.1490360796451569e-001 2.0740383863449097e-001</leafValues></_>
    <_>
      <internalNodes>
        0 -1 3765 -93 1244196671 -272630880 -2010473046 -570427477
        234618303 -772280192 -704643110</internalNodes>
      <leafValues>
        -2.2810928523540497e-001 1.8706800043582916e-001</leafValues></_>
    <_>
      <internalNodes>
        0 -1 2575 1244814864 1601832016 -106625 536555127 -1365713700
        -106497 -1074249729 -1078260517</internalNodes>
      <leafValues>
        -1.8994572758674622e-001 2.3122727870941162e-001</leafValues></_>
    <_>
      <internalNodes>
        0 -1 1449 -289472517 -286330881 -4194313 -268484865 -1
        -805306369 -5 -1075054337</internalNodes>
      <leafValues>
        -1.3713809847831726e-001 3.0794429779052734e-001</leafValues></_>
    <_>
      <internalNodes>
        0 -1 2898 1482542300 1600638431 5098740 1600119000 1073779761
        -8749059 1882583551 1937241599</internalNodes>
      <leafValues>
        -3.1120377779006958e-001 1.4179258048534393e-001</leafValues></_>
    <_>
      <internalNodes>
        0 -1 3192 -30343696 -2575108 -1078132739 -217891 -1342636047
        -1145292811 -1078350855 -1078263589</internalNodes>
      <leafValues>
        -1.5884201228618622e-001 2.6315140724182129e-001</leafValues></_>
    <_>
      <internalNodes>
        0 -1 1704 -827392222 -17896730 2121789172 -85002500 707768183
        -327520793 1196905540 -570436364</internalNodes>
      <leafValues>
        -2.6759338378906250e-001 1.4957396686077118e-001</leafValues></_>
    <_>
      <internalNodes>
        0 -1 3803 -654404592 419170553 -1941979297 299183615 -118969208
        -16780210 -1306477944 -1433760545</internalNodes>
      <leafValues>
        -1.9927519559860229e-001 1.9952967762947083e-001</leafValues></_>
    <_>
      <internalNodes>
        0 -1 2087 552767180 -1157976338 -1073782817 -1196396850
        -1141928052 -69665 -1211117684 583962508</internalNodes>
      <leafValues>
        -3.9086404442787170e-001 9.7701087594032288e-002</leafValues></_>
    <_>
      <internalNodes>
        0 -1 3159 -3290 -234920065 -1905612244 1348529583 -143132923
        -227183276 -143409393 -216797345</internalNodes>
      <leafValues>
        -1.8562020361423492e-001 2.0592023432254791e-001</leafValues></_>
    <_>
      <internalNodes>
        0 -1 3707 -1095827680 -1595736834 -1343303707 -2063730692
        2013262647 595033911 -1086343237 -1245708353</internalNodes>
      <leafValues>
        -2.5844606757164001e-001 1.4718578755855560e-001</leafValues></_>
    <_>
      <internalNodes>
        0 -1 1413 -100664321 -86069526 1342173183 -286261585 -5199
        -254497116 -4269 1868558091</internalNodes>
      <leafValues>
        -2.1406851708889008e-001 1.7804440855979919e-001</leafValues></_>
    <_>
      <internalNodes>
        0 -1 1933 2146953090 524025649 -285364576 502923057 2113369280
        -1078002809 -54858098 -1431765350</internalNodes>
      <leafValues>
        -1.9023272395133972e-001 2.0050860941410065e-001</leafValues></_>
    <_>
      <internalNodes>
        0 -1 2075 -367861162 -620879138 -1157993633 578423395 1146228292
        -562607538 2139049551 -268744113</internalNodes>
      <leafValues>
        -2.2598758339881897e-001 1.6625633835792542e-001</leafValues></_>
    <_>
      <internalNodes>
        0 -1 2523 -218175582 -1058362454 1609752996 -570675712 625125111
        8690 997529075 1157824538</internalNodes>
      <leafValues>
        -2.6355329155921936e-001 1.4174905419349670e-001</leafValues></_>
    <_>
      <internalNodes>
        0 -1 3009 341843792 -19132420 897529855 -1073900041 -1086537800
        -16842753 -1077968961 -1146418022</internalNodes>
      <leafValues>
        -1.8063373863697052e-001 2.0522226393222809e-001</leafValues></_>
    <_>
      <internalNodes>
        0 -1 3968 -547362821 -336658450 359652208 -867241236 -1078984785
        -1940914224 1440216532 1162343856</internalNodes>
      <leafValues>
        -2.1119320392608643e-001 1.7776820063591003e-001</leafValues></_>
    <_>
      <internalNodes>
        0 -1 115 -353571073 1672458239 -2216191 2045382319 -33587916
        1862233975 -32908 -69238785</internalNodes>
      <leafValues>
        -1.9418050348758698e-001 1.9286033511161804e-001</leafValues></_>
    <_>
      <internalNodes>
        0 -1 1194 -1372935184 -288707348 -1091076107 -269736236
        -1074546761 -285235203 -134776873 -1074854787</internalNodes>
      <leafValues>
        -2.0034366846084595e-001 1.7981629073619843e-001</leafValues></_>
    <_>
      <internalNodes>
        0 -1 2787 -1066902048 -856542888 1056845560 1576543290
        -1485794063 683157499 804040696 792397883</internalNodes>
      <leafValues>
        -2.1980498731136322e-001 1.6438181698322296e-001</leafValues></_>
    <_>
      <internalNodes>
        0 -1 2346 1809645752 1342156526 1970959034 1340812970 1325366577
        -65 95748144 1336869034</internalNodes>
      <leafValues>
        -4.3743127584457397e-001 8.0698266625404358e-002</leafValues></_>
    <_>
      <internalNodes>
        0 -1 2934 -525082070 8579750 -528752478 552002474 1884504068
        1449553783 -260770044 -260770940</internalNodes>
      <leafValues>
        -3.2379907369613647e-001 1.0553654283285141e-001</leafValues></_>
    <_>
      <internalNodes>
        0 -1 3564 -803163984 -16991499 -1107427329 -570618627
        -1105150032 -1073828033 -1350254664 250500223</internalNodes>
      <leafValues>
        -2.0958618819713593e-001 1.6943958401679993e-001</leafValues></_>
    <_>
      <internalNodes>
        0 -1 3831 -681580713 1274011503 2143254391 672135148 2147479380
        -807403681 -671614992 -218431532</internalNodes>
      <leafValues>
        -2.1160018444061279e-001 1.6519339382648468e-001</leafValues></_>
    <_>
      <internalNodes>
        0 -1 2572 47370320 16256220 805187455 268183135 278506416
        -1711782724 804196153 262669577</internalNodes>
      <leafValues>
        -2.8518450260162354e-001 1.2339477241039276e-001</leafValues></_>
    <_>
      <internalNodes>
        0 -1 36 -810553429 -825557330 938997745 -859310870 -8390657
        44982223 1461974855 1474294271</internalNodes>
      <leafValues>
        -2.0046584308147430e-001 1.7328670620918274e-001</leafValues></_>
    <_>
      <internalNodes>
        0 -1 3484 1358577919 1434324479 1257697279 868306943 -1334557604
        -596347306 -359596050 -43843713</internalNodes>
      <leafValues>
        -1.8263317644596100e-001 1.8634760379791260e-001</leafValues></_>
    <_>
      <internalNodes>
        0 -1 750 -16783617 -17865233 1792958207 1880817662 -184826034
        -551911865 2086010078 -264044546</internalNodes>
      <leafValues>
        -1.5943036973476410e-001 2.1235714852809906e-001</leafValues></_>
    <_>
      <internalNodes>
        0 -1 3188 -570452544 -737085040 -340524 1440088061 -43000404
        -2147359616 -1613770520 -1984958513</internalNodes>
      <leafValues>
        -1.5487951040267944e-001 2.1416936814785004e-001</leafValues></_>
    <_>
      <internalNodes>
        0 -1 1638 1964986624 29194160 884945920 -1644593483 1367307701
        771612666 2122257727 -1933705491</internalNodes>
      <leafValues>
        -2.8858828544616699e-001 1.1742309480905533e-001</leafValues></_>
    <_>
      <internalNodes>
        0 -1 3678 -151219116 -553869825 -105120001 -10620961 -1090798320
        -41959619 -1073828037 -1414918273</internalNodes>
      <leafValues>
        -1.6099852323532104e-001 2.0848542451858521e-001</leafValues></_>
    <_>
      <internalNodes>
        0 -1 3012 1846017141 -285147212 251604991 -1363686145 2032661875
        1796308561 796342143 775942395</internalNodes>
      <leafValues>
        -1.9951714575290680e-001 1.6454657912254333e-001</leafValues></_>
    <_>
      <internalNodes>
        0 -1 1770 782904871 -1430340129 -1480660059 787220588
        -1342604428 -306184225 2134603633 -1423422340</internalNodes>
      <leafValues>
        -2.9502746462821960e-001 1.0980587452650070e-001</leafValues></_>
    <_>
      <internalNodes>
        0 -1 2196 -12305 358348607 -34084910 298958325 1601963983
        10303319 -143416 -1329860922</internalNodes>
      <leafValues>
        -1.7216333746910095e-001 1.9616676867008209e-001</leafValues></_>
    <_>
      <internalNodes>
        0 -1 2682 1903289380 398438026 1694261797 -1210081140 537196735
        -1309807115 541565487 860842498</internalNodes>
      <leafValues>
        -2.6396793127059937e-001 1.2457794696092606e-001</leafValues></_>
    <_>
      <internalNodes>
        0 -1 1739 -72365333 -392470 -88183094 -218734354 673598534
        1310873171 2052474062 -80513070</internalNodes>
      <leafValues>
        -1.7893902957439423e-001 1.8425491452217102e-001</leafValues></_></weakClassifiers></stage12>
</opencv_storage>
