<?xml version="1.0"?>
<opencv_storage>
<stage10>
  <maxWeakCount>47</maxWeakCount>
  <stageThreshold>-3.3599045276641846e+000</stageThreshold>
  <weakClassifiers>
    <_>
      <internalNodes>
        0 -1 3409 -1 -1 -1 -1 -3 -1 -3 -1</internalNodes>
      <leafValues>
        -8.1868118047714233e-001 -7.4460037052631378e-002</leafValues></_>
    <_>
      <internalNodes>
        0 -1 2380 -1 -1 -1 -1 -1 -1 -1 -353702193</internalNodes>
      <leafValues>
        -5.4268211126327515e-001 2.7217677235603333e-001</leafValues></_>
    <_>
      <internalNodes>
        0 -1 927 -353697793 -67108865 -16842753 -67108865 -8978433
        -67108865 -1 -1</internalNodes>
      <leafValues>
        -3.1651008129119873e-001 4.0992972254753113e-001</leafValues></_>
    <_>
      <internalNodes>
        0 -1 3085 1542717439 2147483647 -1 -65 721355518 2147446783
        587137279 2147436543</internalNodes>
      <leafValues>
        -5.1289534568786621e-001 2.2698436677455902e-001</leafValues></_>
    <_>
      <internalNodes>
        0 -1 3940 -4196559 -1007683585 -1514801904 -134217729 2004350769
        2004350839 -2255 -1</internalNodes>
      <leafValues>
        -2.9023030400276184e-001 3.6989569664001465e-001</leafValues></_>
    <_>
      <internalNodes>
        0 -1 2923 -4097 -1350829136 -285430224 -1904935120 -922989520
        -1610654598 -864801248 -50462730</internalNodes>
      <leafValues>
        -2.6616024971008301e-001 3.3847558498382568e-001</leafValues></_>
    <_>
      <internalNodes>
        0 -1 384 -269488129 -286330881 -1 -286333697 -1 1342177279 -1 -1</internalNodes>
      <leafValues>
        -2.8401890397071838e-001 3.1126499176025391e-001</leafValues></_>
    <_>
      <internalNodes>
        0 -1 1573 1427240304 1427174688 -705441313 -174721661 486604795
        -8912897 231734783 -2065</internalNodes>
      <leafValues>
        -4.6672996878623962e-001 1.8592196702957153e-001</leafValues></_>
    <_>
      <internalNodes>
        0 -1 3015 -797960976 -258818 -1073758209 -58115 -1145192520
        -49156 -1074020353 -1078261606</internalNodes>
      <leafValues>
        -2.2289419174194336e-001 3.4907397627830505e-001</leafValues></_>
    <_>
      <internalNodes>
        0 -1 339 -16781585 -16777489 -488453462 -253564178 -687881148
        -8421761 -151563200 -151519489</internalNodes>
      <leafValues>
        -3.0221429467201233e-001 2.5550097227096558e-001</leafValues></_>
    <_>
      <internalNodes>
        0 -1 1585 -1342197953 -1342230721 -167792847 -1879101647
        -1896903544 -1879064577 -673281864 -1881305937</internalNodes>
      <leafValues>
        -3.5256808996200562e-001 2.2348417341709137e-001</leafValues></_>
    <_>
      <internalNodes>
        0 -1 3009 -252643856 -17033988 -8536065 -189187 -196624 -410116
        -1073889287 -1074069445</internalNodes>
      <leafValues>
        -2.1920439600944519e-001 3.4284031391143799e-001</leafValues></_>
    <_>
      <internalNodes>
        0 -1 3662 -16808929 2147483519 -285212929 -150994945 -310443004
        1300234047 -1459649396 -285212673</internalNodes>
      <leafValues>
        -2.4920161068439484e-001 2.9502490162849426e-001</leafValues></_>
    <_>
      <internalNodes>
        0 -1 755 -84934714 -422641682 -269488305 -269486097 -144705724
        1165491574 2145386319 1331691343</internalNodes>
      <leafValues>
        -3.8220790028572083e-001 1.8483392894268036e-001</leafValues></_>
    <_>
      <internalNodes>
        0 -1 2827 -802139024 -587718657 -1073922051 -1073790977
        -1078936656 -17104897 -1078181889 -1077989957</internalNodes>
      <leafValues>
        -2.2175106406211853e-001 3.2485622167587280e-001</leafValues></_>
    <_>
      <internalNodes>
        0 -1 537 -134271105 -12644513 -285790465 -164319490 1862221695
        -8421505 -286323649 -8712353</internalNodes>
      <leafValues>
        -2.7369028329849243e-001 2.4494585394859314e-001</leafValues></_>
    <_>
      <internalNodes>
        0 -1 3642 -49 -909115441 -3154688 1086649154 -603980404
        -2067792481 -134745152 -771751937</internalNodes>
      <leafValues>
        -3.2011914253234863e-001 2.2456672787666321e-001</leafValues></_>
    <_>
      <internalNodes>
        0 -1 2731 -269491550 11267875 -352329728 -1058148630 1997907780
        82302263 -201866750 -707794993</internalNodes>
      <leafValues>
        -3.5047870874404907e-001 1.8173518776893616e-001</leafValues></_>
    <_>
      <internalNodes>
        0 -1 3219 -285266409 -285212801 -289406977 -273678401 -32971
        -75497601 -221377 -4194817</internalNodes>
      <leafValues>
        -2.3402519524097443e-001 2.6702067255973816e-001</leafValues></_>
    <_>
      <internalNodes>
        0 -1 3003 275837168 -789027076 1056735229 -537125123 -1099646992
        -1095221515 1073725437 -1145372485</internalNodes>
      <leafValues>
        -2.1663488447666168e-001 2.9075822234153748e-001</leafValues></_>
    <_>
      <internalNodes>
        0 -1 1993 -176949257 -267321385 -1355546860 -184528382
        1902508031 347094463 1467315023 1426081538</internalNodes>
      <leafValues>
        -3.1285187602043152e-001 1.8063560128211975e-001</leafValues></_>
    <_>
      <internalNodes>
        0 -1 1564 -123730736 -524076 -33619969 -6551332 -1154433104
        -21118983 -1015875 990385425</internalNodes>
      <leafValues>
        -3.2794809341430664e-001 1.7032364010810852e-001</leafValues></_>
    <_>
      <internalNodes>
        0 -1 3777 -5 -815792129 -2623696 -528400 -81 -822083649
        -134744112 -134217737</internalNodes>
      <leafValues>
        -1.9554555416107178e-001 2.9192763566970825e-001</leafValues></_>
    <_>
      <internalNodes>
        0 -1 3624 1086999118 -620884210 774831962 275279390 -721494322
        -16777516 -67436550 -100466758</internalNodes>
      <leafValues>
        -2.7360129356384277e-001 2.0302323997020721e-001</leafValues></_>
    <_>
      <internalNodes>
        0 -1 145 -353480978 1659218687 -21230804 1627327215 1970765636
        1156544223 -151225488 -167817473</internalNodes>
      <leafValues>
        -3.5488548874855042e-001 1.6053903102874756e-001</leafValues></_>
    <_>
      <internalNodes>
        0 -1 2279 -134742017 -320033617 -184697153 -1362318097 -524361
        536949764 -13254891 4547351</internalNodes>
      <leafValues>
        -3.7058839201927185e-001 1.4385613799095154e-001</leafValues></_>
    <_>
      <internalNodes>
        0 -1 1770 -1427206601 -1360080897 -1207963649 -1880232193
        -1074151563 -2097669 -1615069321 -71303175</internalNodes>
      <leafValues>
        -2.2443395853042603e-001 2.3616071045398712e-001</leafValues></_>
    <_>
      <internalNodes>
        0 -1 2094 -172121960 -134238481 -170009607 -710366550 -135266887
        -1 1596264864 1430061195</internalNodes>
      <leafValues>
        -3.4452158212661743e-001 1.5494212508201599e-001</leafValues></_>
    <_>
      <internalNodes>
        0 -1 2177 90359434 856817521 -352325982 292615664 -12745010
        1073715133 -151025016 552649344</internalNodes>
      <leafValues>
        -3.8690641522407532e-001 1.3366678357124329e-001</leafValues></_>
    <_>
      <internalNodes>
        0 -1 2823 -252651536 2097045502 -134234113 -189955 -1073824336
        -1074088196 -1073758277 -1141169218</internalNodes>
      <leafValues>
        -1.6988831758499146e-001 3.0447933077812195e-001</leafValues></_>
    <_>
      <internalNodes>
        0 -1 3147 -227285502 1886813887 -1569545694 14868477 -227319292
        1618443877 -214433905 -212336657</internalNodes>
      <leafValues>
        -2.6066872477531433e-001 1.9324068725109100e-001</leafValues></_>
    <_>
      <internalNodes>
        0 -1 108 -282088533 -500520286 1306210080 -1058668000
        -1075317825 1176172375 2002196435 1476384247</internalNodes>
      <leafValues>
        -2.5949698686599731e-001 1.9175969064235687e-001</leafValues></_>
    <_>
      <internalNodes>
        0 -1 3018 536919472 -1157841160 -393217 -1073792003 -1082671371
        -1073916195 -1073774593 -1077997953</internalNodes>
      <leafValues>
        -2.1090058982372284e-001 2.4321407079696655e-001</leafValues></_>
    <_>
      <internalNodes>
        0 -1 3438 -1207913424 -38005276 -98307 -35873003 142652880
        -1090636353 521149917 231211345</internalNodes>
      <leafValues>
        -3.5215473175048828e-001 1.3886585831642151e-001</leafValues></_>
    <_>
      <internalNodes>
        0 -1 3907 -536933281 -129 -20971521 1660944255 -100711340
        1560280927 -285674292 -9175073</internalNodes>
      <leafValues>
        -1.7552132904529572e-001 2.7909737825393677e-001</leafValues></_>
    <_>
      <internalNodes>
        0 -1 1445 -17832194 -571793 -227389698 1886578254 1413891654
        -61911794 -59322753 -25723041</internalNodes>
      <leafValues>
        -2.2914069890975952e-001 2.0861804485321045e-001</leafValues></_>
    <_>
      <internalNodes>
        0 -1 1589 1142959120 -35910256 2138929151 -35830275 -1109640912
        -1078624836 -1073791041 999884057</internalNodes>
      <leafValues>
        -2.8215572237968445e-001 1.6582711040973663e-001</leafValues></_>
    <_>
      <internalNodes>
        0 -1 2681 2087939752 530312111 1912595058 -5374296 1087786239
        2147430399 1416979960 1961161966</internalNodes>
      <leafValues>
        -2.5625133514404297e-001 1.7982980608940125e-001</leafValues></_>
    <_>
      <internalNodes>
        0 -1 1298 -532220336 -456236814 1145372245 -856703761 -17631728
        -10485779 -216943791 -3145985</internalNodes>
      <leafValues>
        -3.3928006887435913e-001 1.3753974437713623e-001</leafValues></_>
    <_>
      <internalNodes>
        0 -1 2243 808694048 10662688 2112321329 -33688065 897361331
        -1992360007 1967076657 -704662063</internalNodes>
      <leafValues>
        -3.1687334179878235e-001 1.4710116386413574e-001</leafValues></_>
    <_>
      <internalNodes>
        0 -1 2997 3151088 -185058178 175390580 1442332382 -1497581580
        -1107787851 1005436920 -1409609542</internalNodes>
      <leafValues>
        -2.1888338029384613e-001 2.1921129524707794e-001</leafValues></_>
    <_>
      <internalNodes>
        0 -1 3646 -2157 25933571 -202443456 -1067190480 -1778395776
        79682998 -524352 -839909377</internalNodes>
      <leafValues>
        -2.4529209733009338e-001 1.9169367849826813e-001</leafValues></_>
    <_>
      <internalNodes>
        0 -1 2589 758001457 -1460127746 2128601087 -1905476914 -8638704
        -53507 -17481983 -891813712</internalNodes>
      <leafValues>
        -3.0513879656791687e-001 1.5058442950248718e-001</leafValues></_>
    <_>
      <internalNodes>
        0 -1 3476 49414398 408947263 721160831 679087262 2137001583
        -58769555 -1156646209 -68399251</internalNodes>
      <leafValues>
        -3.5184100270271301e-001 1.2642829120159149e-001</leafValues></_>
    <_>
      <internalNodes>
        0 -1 3366 -684282344 272117024 536788893 420077471 -1280211808
        3410948 -1476491096 151751835</internalNodes>
      <leafValues>
        -2.5002598762512207e-001 1.7880237102508545e-001</leafValues></_>
    <_>
      <internalNodes>
        0 -1 308 -38273 2029153135 -1375813761 402718458 -1097388
        -8437939 -17031388 -96141676</internalNodes>
      <leafValues>
        -2.5241369009017944e-001 1.8484921753406525e-001</leafValues></_>
    <_>
      <internalNodes>
        0 -1 1140 -285954061 -286330915 -10411 -289116559 -50637
        -337117185 -673963 -539146379</internalNodes>
      <leafValues>
        -2.3852553963661194e-001 1.9091387093067169e-001</leafValues></_></weakClassifiers></stage10>
</opencv_storage>
