<?xml version="1.0"?>
<opencv_storage>
<stage6>
  <maxWeakCount>21</maxWeakCount>
  <stageThreshold>-3.4525806903839111e+000</stageThreshold>
  <weakClassifiers>
    <_>
      <internalNodes>
        0 -1 1815 -1 -1 -17409 -21761 -1 -1 -21829 -21761</internalNodes>
      <leafValues>
        -8.8303828239440918e-001 -2.2937859466765076e-004</leafValues></_>
    <_>
      <internalNodes>
        0 -1 2357 -67108865 -1 -1 -1 -1 -1 -1 -1431638289</internalNodes>
      <leafValues>
        -6.6047358512878418e-001 2.7792128920555115e-001</leafValues></_>
    <_>
      <internalNodes>
        0 -1 1305 1963325184 -148783185 -3 -1 1968570367 -524289
        -2228225 -1</internalNodes>
      <leafValues>
        -5.9465909004211426e-001 3.1298360228538513e-001</leafValues></_>
    <_>
      <internalNodes>
        0 -1 3128 1089725183 838336511 -1543504897 -1140850689
        1089945855 -32769 -201331713 -1025</internalNodes>
      <leafValues>
        -4.1985368728637695e-001 4.3856814503669739e-001</leafValues></_>
    <_>
      <internalNodes>
        0 -1 3225 -249 -1 -1 -1 -235 2139094911 -137 -1</internalNodes>
      <leafValues>
        -4.2037922143936157e-001 3.4973043203353882e-001</leafValues></_>
    <_>
      <internalNodes>
        0 -1 2182 -152913 -10490049 1979032232 -46275926 11472063 -2
        1079312554 -170409842</internalNodes>
      <leafValues>
        -4.4908407330513000e-001 3.1335505843162537e-001</leafValues></_>
    <_>
      <internalNodes>
        0 -1 3719 -537920048 -856883252 -928318464 -928448576 -134221344
        -570427401 -709111424 -4456469</internalNodes>
      <leafValues>
        -4.5740011334419250e-001 3.0191609263420105e-001</leafValues></_>
    <_>
      <internalNodes>
        0 -1 8 -1347768405 -1432178774 -32905 -1356722398 -805306369
        1181216767 -1 -1</internalNodes>
      <leafValues>
        -3.3697947859764099e-001 3.6626800894737244e-001</leafValues></_>
    <_>
      <internalNodes>
        0 -1 1267 -252379312 1442796885 1613823763 1438593947 -1296 -35
        -72613957 -17749</internalNodes>
      <leafValues>
        -4.6420329809188843e-001 2.4831593036651611e-001</leafValues></_>
    <_>
      <internalNodes>
        0 -1 704 -17 -17891345 -286855442 -219746578 -129 -524289
        -176696234 -134217729</internalNodes>
      <leafValues>
        -3.6670857667922974e-001 3.1141841411590576e-001</leafValues></_>
    <_>
      <internalNodes>
        0 -1 3647 -5243998 33750786 -704909152 -243075152 -374341717
        -1985216581 -742395520 -4194373</internalNodes>
      <leafValues>
        -3.1379050016403198e-001 3.0936416983604431e-001</leafValues></_>
    <_>
      <internalNodes>
        0 -1 3018 1054064 -1661067299 -1073774593 1073692671 -1074414147
        -4210689 1073692607 -1346696517</internalNodes>
      <leafValues>
        -2.9317018389701843e-001 3.2388964295387268e-001</leafValues></_>
    <_>
      <internalNodes>
        0 -1 2904 -286265593 -285218833 -4177 -823136529 -279447753
        -286262617 -143165657 -286267648</internalNodes>
      <leafValues>
        -3.2206475734710693e-001 2.9040965437889099e-001</leafValues></_>
    <_>
      <internalNodes>
        0 -1 368 -17830162 -6417 -487659778 -218181906 -733493937
        -8435889 -185146114 -134227969</internalNodes>
      <leafValues>
        -3.1486254930496216e-001 2.7356433868408203e-001</leafValues></_>
    <_>
      <internalNodes>
        0 -1 3426 -1669317328 -17137671 -131075 -229379 -1124068464
        -73793 -1079747331 -1931995684</internalNodes>
      <leafValues>
        -3.7615320086479187e-001 2.3915372788906097e-001</leafValues></_>
    <_>
      <internalNodes>
        0 -1 3204 -856369964 -51114500 -513 -61955 -1107313155 -16973827
        -1410351105 -1342240577</internalNodes>
      <leafValues>
        -2.0504827797412872e-001 4.0223273634910583e-001</leafValues></_>
    <_>
      <internalNodes>
        0 -1 2704 -352326094 -144724572 -333386720 -454579209 -327881616
        1815367174 -463143307 -8912961</internalNodes>
      <leafValues>
        -3.1206411123275757e-001 2.6500657200813293e-001</leafValues></_>
    <_>
      <internalNodes>
        0 -1 3198 -61811468 -34339588 -8193 -259843 -1157761543 -197379
        -1078214657 -1145370565</internalNodes>
      <leafValues>
        -2.1021230518817902e-001 3.9827489852905273e-001</leafValues></_>
    <_>
      <internalNodes>
        0 -1 3507 -33554686 -268435481 -33554656 811794338 -67108980
        -1964048497 -128 -251920453</internalNodes>
      <leafValues>
        -3.4361562132835388e-001 2.3594933748245239e-001</leafValues></_>
    <_>
      <internalNodes>
        0 -1 29 -220725409 -253891516 -288428281 14716416 -148504747
        -185204747 -282854653 -134742153</internalNodes>
      <leafValues>
        -2.8738248348236084e-001 2.7091291546821594e-001</leafValues></_>
    <_>
      <internalNodes>
        0 -1 1949 286987536 1035943416 1035958193 -33555460 1062810805
        -1147142151 1035351953 -1074203251</internalNodes>
      <leafValues>
        -3.7007027864456177e-001 2.1189834177494049e-001</leafValues></_></weakClassifiers></stage6>
</opencv_storage>
